FANN_FLO_2.1
num_layers=3
learning_rate=0.700000
connection_rate=1.000000
network_type=0
learning_momentum=0.000000
training_algorithm=2
train_error_function=1
train_stop_function=0
cascade_output_change_fraction=0.010000
quickprop_decay=-0.000100
quickprop_mu=1.750000
rprop_increase_factor=1.200000
rprop_decrease_factor=0.500000
rprop_delta_min=0.000000
rprop_delta_max=50.000000
rprop_delta_zero=0.100000
cascade_output_stagnation_epochs=12
cascade_candidate_change_fraction=0.010000
cascade_candidate_stagnation_epochs=12
cascade_max_out_epochs=150
cascade_min_out_epochs=50
cascade_max_cand_epochs=150
cascade_min_cand_epochs=50
cascade_num_candidate_groups=2
bit_fail_limit=3.49999994039535522461e-01
cascade_candidate_limit=1.00000000000000000000e+03
cascade_weight_multiplier=4.00000005960464477539e-01
cascade_activation_functions_count=10
cascade_activation_functions=3 5 7 8 10 11 14 15 16 17 
cascade_activation_steepnesses_count=4
cascade_activation_steepnesses=2.50000000000000000000e-01 5.00000000000000000000e-01 7.50000000000000000000e-01 1.00000000000000000000e+00 
layer_sizes=52 9 2 
scale_included=0
neurons (num_inputs, activation_function, activation_steepness)=(0, 0, 0.00000000000000000000e+00) (0, 0, 0.00000000000000000000e+00) (0, 0, 0.00000000000000000000e+00) (0, 0, 0.00000000000000000000e+00) (0, 0, 0.00000000000000000000e+00) (0, 0, 0.00000000000000000000e+00) (0, 0, 0.00000000000000000000e+00) (0, 0, 0.00000000000000000000e+00) (0, 0, 0.00000000000000000000e+00) (0, 0, 0.00000000000000000000e+00) (0, 0, 0.00000000000000000000e+00) (0, 0, 0.00000000000000000000e+00) (0, 0, 0.00000000000000000000e+00) (0, 0, 0.00000000000000000000e+00) (0, 0, 0.00000000000000000000e+00) (0, 0, 0.00000000000000000000e+00) (0, 0, 0.00000000000000000000e+00) (0, 0, 0.00000000000000000000e+00) (0, 0, 0.00000000000000000000e+00) (0, 0, 0.00000000000000000000e+00) (0, 0, 0.00000000000000000000e+00) (0, 0, 0.00000000000000000000e+00) (0, 0, 0.00000000000000000000e+00) (0, 0, 0.00000000000000000000e+00) (0, 0, 0.00000000000000000000e+00) (0, 0, 0.00000000000000000000e+00) (0, 0, 0.00000000000000000000e+00) (0, 0, 0.00000000000000000000e+00) (0, 0, 0.00000000000000000000e+00) (0, 0, 0.00000000000000000000e+00) (0, 0, 0.00000000000000000000e+00) (0, 0, 0.00000000000000000000e+00) (0, 0, 0.00000000000000000000e+00) (0, 0, 0.00000000000000000000e+00) (0, 0, 0.00000000000000000000e+00) (0, 0, 0.00000000000000000000e+00) (0, 0, 0.00000000000000000000e+00) (0, 0, 0.00000000000000000000e+00) (0, 0, 0.00000000000000000000e+00) (0, 0, 0.00000000000000000000e+00) (0, 0, 0.00000000000000000000e+00) (0, 0, 0.00000000000000000000e+00) (0, 0, 0.00000000000000000000e+00) (0, 0, 0.00000000000000000000e+00) (0, 0, 0.00000000000000000000e+00) (0, 0, 0.00000000000000000000e+00) (0, 0, 0.00000000000000000000e+00) (0, 0, 0.00000000000000000000e+00) (0, 0, 0.00000000000000000000e+00) (0, 0, 0.00000000000000000000e+00) (0, 0, 0.00000000000000000000e+00) (0, 0, 0.00000000000000000000e+00) (52, 4, 5.00000000000000000000e-01) (52, 4, 5.00000000000000000000e-01) (52, 4, 5.00000000000000000000e-01) (52, 4, 5.00000000000000000000e-01) (52, 4, 5.00000000000000000000e-01) (52, 4, 5.00000000000000000000e-01) (52, 4, 5.00000000000000000000e-01) (52, 4, 5.00000000000000000000e-01) (0, 0, 0.00000000000000000000e+00) (9, 5, 5.00000000000000000000e-01) (0, 5, 0.00000000000000000000e+00) 
connections (connected_to_neuron, weight)=(0, -1.50000000000000000000e+03) (1, 1.48908703613281250000e+03) (2, -1.34421728515625000000e+03) (3, -1.50000000000000000000e+03) (4, -1.15203771972656250000e+03) (5, -1.49329943847656250000e+03) (6, -1.50000000000000000000e+03) (7, -1.50000000000000000000e+03) (8, 1.42678283691406250000e+03) (9, -1.49487976074218750000e+03) (10, -1.50000000000000000000e+03) (11, 1.50000000000000000000e+03) (12, -1.50000000000000000000e+03) (13, 1.50000000000000000000e+03) (14, 1.50000000000000000000e+03) (15, -1.50000000000000000000e+03) (16, -1.51916227340698242188e+01) (17, -1.46312683105468750000e+03) (18, 1.19023571777343750000e+03) (19, -1.49623913574218750000e+03) (20, -1.49956030273437500000e+03) (21, -1.50000000000000000000e+03) (22, 1.50000000000000000000e+03) (23, -3.80675872802734375000e+02) (24, -1.49334838867187500000e+03) (25, 7.99519348144531250000e+02) (26, 1.50000000000000000000e+03) (27, -1.50000000000000000000e+03) (28, -9.47191589355468750000e+02) (29, -1.44050061035156250000e+03) (30, 1.49293664550781250000e+03) (31, -9.70847473144531250000e+02) (32, -1.50000000000000000000e+03) (33, -1.50000000000000000000e+03) (34, 1.50000000000000000000e+03) (35, -1.50000000000000000000e+03) (36, -1.49999511718750000000e+03) (37, -1.49993835449218750000e+03) (38, 2.76558654785156250000e+02) (39, -1.48710241699218750000e+03) (40, -1.50000000000000000000e+03) (41, 2.47047195434570312500e+01) (42, 1.33776992797851562500e+02) (43, 1.50000000000000000000e+03) (44, 1.50000000000000000000e+03) (45, -1.50000000000000000000e+03) (46, -1.50000000000000000000e+03) (47, 9.15745544433593750000e+00) (48, -1.49979394531250000000e+03) (49, -1.50000000000000000000e+03) (50, -6.60939502716064453125e+00) (51, -1.52451797485351562500e+02) (0, 2.55693450927734375000e+02) (1, -2.67901687622070312500e+01) (2, 2.48844223022460937500e+01) (3, 3.05163326263427734375e+01) (4, -1.27732439041137695312e+01) (5, 8.98598480224609375000e+00) (6, 5.44853544235229492188e+00) (7, -8.04566574096679687500e+00) (8, 6.07200431823730468750e+00) (9, 1.34453277587890625000e+01) (10, 8.28209915161132812500e+01) (11, -4.85158386230468750000e+01) (12, -2.03710308074951171875e+01) (13, 4.80455703735351562500e+01) (14, 1.27195373535156250000e+02) (15, -4.47181701660156250000e+01) (16, -2.27833080291748046875e+01) (17, -1.19001426696777343750e+01) (18, -3.26067733764648437500e+01) (19, -1.36178989410400390625e+01) (20, 4.43450832366943359375e+00) (21, 2.63443908691406250000e+01) (22, 4.44966745376586914062e+00) (23, -1.62045860290527343750e+00) (24, 1.57595515251159667969e-01) (25, 5.10873489379882812500e+01) (26, 2.72199192047119140625e+01) (27, -2.00608093261718750000e+02) (28, 6.72114334106445312500e+01) (29, -5.05566062927246093750e+01) (30, 1.46640960693359375000e+02) (31, -2.00052986145019531250e+01) (32, -1.15010890960693359375e+01) (33, -9.48736286163330078125e+00) (34, -3.03423213958740234375e+01) (35, 1.55742444992065429688e+01) (36, 2.73095226287841796875e+01) (37, 1.85137481689453125000e+01) (38, 3.13756999969482421875e+01) (39, 1.73033123016357421875e+01) (40, 1.10796524047851562500e+02) (41, -2.63611912727355957031e+00) (42, -1.56036376953125000000e+01) (43, 4.19221341609954833984e-01) (44, 9.44968760013580322266e-01) (45, 1.43233489990234375000e+01) (46, -8.46632495522499084473e-02) (47, -4.80911350250244140625e+00) (48, 3.88135986328125000000e+01) (49, -7.08869323730468750000e+01) (50, 2.65735816955566406250e+01) (51, 3.82711696624755859375e+00) (0, 5.15102844238281250000e+01) (1, -7.04694604873657226562e+00) (2, 6.30941629409790039062e-01) (3, 5.49363565444946289062e+00) (4, -2.09654235839843750000e+00) (5, 4.32489442825317382812e+00) (6, 6.62608432769775390625e+00) (7, -2.04479384422302246094e+00) (8, -3.25122022628784179688e+00) (9, -3.53291177749633789062e+00) (10, 3.54553184509277343750e+01) (11, -5.07853460311889648438e+00) (12, 1.75775890350341796875e+01) (13, 2.01171517372131347656e+00) (14, 3.80415763854980468750e+01) (15, 1.55184805393218994141e+00) (16, -2.38714752197265625000e+01) (17, -6.42550516128540039062e+00) (18, -1.83448009490966796875e+01) (19, -1.30617752075195312500e+01) (20, -1.15516862869262695312e+01) (21, 1.70028896331787109375e+01) (22, -2.67130622863769531250e+01) (23, -1.43751640319824218750e+01) (24, -8.38271713256835937500e+00) (25, -8.18412601947784423828e-01) (26, -7.98354268074035644531e-01) (27, -4.75395126342773437500e+01) (28, 3.78616499900817871094e+00) (29, -2.13821907043457031250e+01) (30, 1.97620124816894531250e+01) (31, 1.58557462692260742188e+00) (32, -2.37293624877929687500e+00) (33, -1.41603958606719970703e+00) (34, -1.02186717987060546875e+01) (35, 9.45569610595703125000e+00) (36, -3.03836941719055175781e+00) (37, -4.96935516595840454102e-01) (38, 4.26537418365478515625e+00) (39, 8.39866876602172851562e-01) (40, 6.42645978927612304688e+00) (41, -1.05763459205627441406e+00) (42, 8.56623649597167968750e+00) (43, -4.58370804786682128906e-01) (44, 7.24486875534057617188e+00) (45, -3.35365271568298339844e+00) (46, 3.70879030227661132812e+00) (47, -3.34566116333007812500e+00) (48, 7.39986479282379150391e-01) (49, -6.59713554382324218750e+00) (50, 4.42504119873046875000e+00) (51, 2.46447134017944335938e+00) (0, 3.44351577758789062500e+01) (1, 1.24454917907714843750e+01) (2, 1.45983734130859375000e+01) (3, -1.34497442245483398438e+01) (4, 4.18353748321533203125e+00) (5, -2.28510546684265136719e+00) (6, 3.42531514167785644531e+00) (7, 3.99247598648071289062e+00) (8, -1.53649549484252929688e+01) (9, -3.88927268981933593750e+01) (10, 4.32102661132812500000e+01) (11, -1.38893270492553710938e+01) (12, -9.69687175750732421875e+00) (13, 2.47308158874511718750e+00) (14, 4.35035018920898437500e+01) (15, -2.11844372749328613281e+00) (16, -2.35755996704101562500e+01) (17, -4.55935049057006835938e+00) (18, -3.35707168579101562500e+01) (19, -2.30117931365966796875e+01) (20, -5.86913251876831054688e+00) (21, 1.29432125091552734375e+01) (22, 9.26951980590820312500e+00) (23, -2.93880432844161987305e-01) (24, -5.26442289352416992188e+00) (25, 2.44216251373291015625e+01) (26, 4.15113019943237304688e+00) (27, -3.84942016601562500000e+01) (28, 3.42283034324645996094e+00) (29, -7.95296192169189453125e+00) (30, 5.35039472579956054688e+00) (31, -1.93797349929809570312e+00) (32, -1.22575867176055908203e+00) (33, -9.79518592357635498047e-02) (34, -7.98180246353149414062e+00) (35, 3.03985614776611328125e+01) (36, 8.01482677459716796875e+00) (37, 1.15036594867706298828e+00) (38, 5.21725511550903320312e+00) (39, 7.24624252319335937500e+00) (40, 8.90116024017333984375e+00) (41, -3.86025547981262207031e-01) (42, 2.42925777435302734375e+01) (43, -1.79933503270149230957e-01) (44, 1.65378360748291015625e+01) (45, 8.46157371997833251953e-01) (46, 4.10401701927185058594e-01) (47, -1.75876975059509277344e+00) (48, 5.69367218017578125000e+00) (49, -3.48769879341125488281e+00) (50, 8.27004814147949218750e+00) (51, 3.46561193466186523438e+00) (0, -6.02097778320312500000e+02) (1, 3.41133499145507812500e+01) (2, -1.35307769775390625000e+02) (3, -4.38548355102539062500e+01) (4, 4.52323341369628906250e+01) (5, 1.44096965789794921875e+01) (6, 2.44585830688476562500e+02) (7, 7.73376007080078125000e+01) (8, 1.01931747436523437500e+02) (9, 9.64022521972656250000e+01) (10, 3.08968170166015625000e+02) (11, -9.90334243774414062500e+01) (12, 4.68591957092285156250e+01) (13, -1.51951126098632812500e+02) (14, -7.63034912109375000000e+02) (15, 5.06048321723937988281e-01) (16, 1.74355545043945312500e+01) (17, 6.00620231628417968750e+01) (18, 6.94218902587890625000e+01) (19, 2.63296295166015625000e+02) (20, 5.02638854980468750000e+02) (21, 3.32421379089355468750e+01) (22, 5.41088294982910156250e+01) (23, 3.19605960845947265625e+01) (24, 5.95764636993408203125e+00) (25, 5.61383361816406250000e+01) (26, -1.14188766479492187500e+02) (27, 7.00590057373046875000e+01) (28, 5.71494293212890625000e+01) (29, 1.49934887695312500000e+03) (30, -2.23515258789062500000e+02) (31, -2.41002464294433593750e+01) (32, 2.19058952331542968750e+01) (33, 1.10516883850097656250e+02) (34, -1.80284233093261718750e+01) (35, -1.69730699062347412109e+00) (36, 7.20444641113281250000e+02) (37, 1.00412101745605468750e+02) (38, 6.85046234130859375000e+01) (39, -1.08064575195312500000e+01) (40, 1.88104610443115234375e+01) (41, 4.98317718505859375000e+00) (42, 1.40513781738281250000e+03) (43, 3.86683440208435058594e+00) (44, 1.10413827896118164062e+01) (45, -3.30041813850402832031e+00) (46, 1.37905778884887695312e+01) (47, 6.91578817367553710938e+00) (48, 8.00303497314453125000e+01) (49, 3.36382637023925781250e+01) (50, -7.11767501831054687500e+01) (51, -6.89838218688964843750e+00) (0, -1.40120559692382812500e+02) (1, -4.44155464172363281250e+01) (2, -1.51718154907226562500e+02) (3, 5.74147605895996093750e+01) (4, 2.05083572387695312500e+02) (5, -1.41195510864257812500e+02) (6, 5.34808471679687500000e+02) (7, -2.96545238494873046875e+01) (8, 1.50544815063476562500e+02) (9, 1.16449316406250000000e+03) (10, 1.50000000000000000000e+03) (11, -6.68774291992187500000e+02) (12, 2.12605911254882812500e+02) (13, -3.48370391845703125000e+02) (14, -9.37361999511718750000e+02) (15, 8.49545364379882812500e+01) (16, 1.49790939331054687500e+02) (17, 1.20248596191406250000e+02) (18, -3.21991539001464843750e+00) (19, 1.39433593750000000000e+02) (20, 1.31374862670898437500e+02) (21, -1.44209785461425781250e+01) (22, 1.99144378662109375000e+02) (23, 1.36249694824218750000e+02) (24, 1.88385725021362304688e+00) (25, 1.29682714843750000000e+03) (26, -1.61009689331054687500e+02) (27, 2.86924102783203125000e+02) (28, 1.07060119628906250000e+02) (29, 2.49125045776367187500e+02) (30, 2.57322158813476562500e+01) (31, -1.37989593505859375000e+02) (32, 3.02187767028808593750e+01) (33, 8.34736755371093750000e+02) (34, -3.06045959472656250000e+02) (35, -4.55839931964874267578e-01) (36, 3.11394134521484375000e+02) (37, 4.29130889892578125000e+02) (38, -2.55003223419189453125e+01) (39, 1.81333029270172119141e+00) (40, -1.51503839492797851562e+01) (41, 1.67895336151123046875e+01) (42, 4.97666748046875000000e+02) (43, 1.64893093109130859375e+01) (44, 4.14092292785644531250e+01) (45, -1.21682682037353515625e+01) (46, -1.25046644210815429688e+01) (47, 2.26070618629455566406e+00) (48, 2.90449523925781250000e+02) (49, 1.90227554321289062500e+02) (50, -1.52406346797943115234e+00) (51, -3.06872582435607910156e+00) (0, -1.50000000000000000000e+03) (1, 8.46614685058593750000e+02) (2, -1.24086828613281250000e+03) (3, -1.50000000000000000000e+03) (4, -1.49494287109375000000e+03) (5, -1.12747299194335937500e+02) (6, -1.50000000000000000000e+03) (7, -1.50000000000000000000e+03) (8, 1.27774975585937500000e+03) (9, -1.50000000000000000000e+03) (10, -1.50000000000000000000e+03) (11, 1.50000000000000000000e+03) (12, -1.50000000000000000000e+03) (13, 1.50000000000000000000e+03) (14, 1.50000000000000000000e+03) (15, -1.50000000000000000000e+03) (16, -6.85186767578125000000e+01) (17, -1.50000000000000000000e+03) (18, 1.47610961914062500000e+03) (19, -4.13110466003417968750e+01) (20, -1.50000000000000000000e+03) (21, -1.50000000000000000000e+03) (22, 1.50000000000000000000e+03) (23, 1.23570947265625000000e+03) (24, -1.47516052246093750000e+03) (25, 4.32483459472656250000e+02) (26, -1.46873974609375000000e+03) (27, -1.50000000000000000000e+03) (28, -1.50000000000000000000e+03) (29, -1.45190490722656250000e+03) (30, -1.80971664428710937500e+02) (31, 4.24478332519531250000e+02) (32, -1.50000000000000000000e+03) (33, -1.50000000000000000000e+03) (34, 1.50000000000000000000e+03) (35, -1.49999755859375000000e+03) (36, -1.50000000000000000000e+03) (37, -1.45607971191406250000e+03) (38, -1.50000000000000000000e+03) (39, 1.50000000000000000000e+03) (40, -1.50000000000000000000e+03) (41, 9.01576042175292968750e+00) (42, -7.57104919433593750000e+02) (43, 1.50000000000000000000e+03) (44, 1.50000000000000000000e+03) (45, -1.50000000000000000000e+03) (46, -1.50000000000000000000e+03) (47, 3.56218743324279785156e+00) (48, -1.50000000000000000000e+03) (49, -1.50000000000000000000e+03) (50, -2.38513255119323730469e+00) (51, -1.31571073532104492188e+01) (0, -3.63088035583496093750e+01) (1, -1.08032627105712890625e+01) (2, -1.54813222885131835938e+01) (3, -3.59230613708496093750e+01) (4, -3.99790115356445312500e+01) (5, 2.57429933547973632812e+00) (6, -1.17662897109985351562e+01) (7, 5.83610963821411132812e+00) (8, -5.28054189682006835938e+00) (9, 8.33461761474609375000e+00) (10, -5.78220558166503906250e+01) (11, -2.78547344207763671875e+01) (12, 7.41484308242797851562e+00) (13, 6.58020019531250000000e+00) (14, -1.89415035247802734375e+01) (15, -1.71494178771972656250e+01) (16, 2.64037685394287109375e+01) (17, 9.30892848968505859375e+00) (18, 1.26339693069458007812e+01) (19, 1.97889652252197265625e+01) (20, 2.55740184783935546875e+01) (21, -3.00870704650878906250e+00) (22, 3.54456100463867187500e+01) (23, 1.03040475845336914062e+01) (24, 2.48988361358642578125e+01) (25, 1.70128440856933593750e+01) (26, 1.26860046386718750000e+01) (27, 2.59388637542724609375e+01) (28, 1.43158931732177734375e+01) (29, 8.92733955383300781250e+00) (30, -2.50684428215026855469e+00) (31, 9.44957828521728515625e+00) (32, 2.50047702789306640625e+01) (33, -3.31542320251464843750e+01) (34, 7.91217756271362304688e+00) (35, -7.58398675918579101562e+00) (36, -4.33703460693359375000e+01) (37, -9.58986091613769531250e+00) (38, -2.11920356750488281250e+00) (39, 6.72360599040985107422e-01) (40, 1.19346828460693359375e+01) (41, 6.94519901275634765625e+00) (42, 1.09982967376708984375e+01) (43, 7.09891557693481445312e+00) (44, 1.52632656097412109375e+01) (45, -4.94665050506591796875e+00) (46, -9.64709949493408203125e+00) (47, 2.56509137153625488281e+00) (48, -4.16334800720214843750e+01) (49, 4.74150753021240234375e+00) (50, -7.35175132751464843750e+00) (51, -1.97669625282287597656e+00) (52, 9.32969927787780761719e-01) (53, 2.86115860939025878906e+00) (54, 3.20218729972839355469e+00) (55, 3.10106182098388671875e+00) (56, -1.29686677455902099609e+00) (57, -1.44841897487640380859e+00) (58, 5.18453598022460937500e-01) (59, -2.34092688560485839844e+00) (60, -2.14570641517639160156e+00) 
